3 0 3 3
relu
relu
relu
relu
relu
relu
relu
relu
sigmoid
8 8
0.45595807 -0.4998889 0.11988966 0.3913274 0.31532273 -0.020464696 -0.27524605 -0.2610342 
0.52848375 -0.42223516 -0.21011285 0.41987517 -0.56006896 0.46318963 0.3058081 -0.2935718 
-0.13570054 0.06574106 -0.06557361 0.29962346 0.33131063 0.045625165 -0.34376904 -0.5405017 
0.6892849 -0.5053012 0.6967576 0.51317316 -0.365691 -0.39204246 -0.020333495 -0.42320496 
-0.11880863 -0.04947639 -0.6656213 -0.0083665205 -0.3102134 -0.1077916 0.4893899 -0.14472218 
-0.08387966 -0.19937089 0.41252434 -0.06044487 -0.6044938 -0.37817937 -0.51983154 -0.13906273 
0.23380473 -0.53760844 -0.45785397 0.681062 -0.2450641 -0.107403874 0.7765006 -0.045878436 
-0.17069855 -0.31975046 0.677612 -0.8552738 0.12626427 0.2370031 -1.5342064 0.16273433 
8
0.11978928 -0.122274905 0.20181882 0.20157377 -0.1561305 0.07445955 -0.0015857671 -0.00046085124 
8 8
0.049135167 -0.039016686 -0.066508204 0.163212 -0.76715004 0.51833373 0.25342628 0.47746792 
0.39087886 -0.04427922 -0.71635854 -0.121074945 -0.29324436 0.23029405 -0.38021678 -0.3006946 
0.30185232 -0.59076536 -0.4184826 -0.43654603 0.32233265 -1.0978785 -0.08077612 -1.3544886 
-0.63335425 0.14926435 -0.41507542 -0.62229836 -0.32411844 0.587299 0.045505684 0.618033 
-0.5647312 -0.29612175 0.24324515 -0.04785037 0.2389385 0.4586075 -0.23213713 0.4810851 
-0.5100131 -0.097458884 0.30885276 -0.122877546 -0.8235757 -0.5446157 0.3589568 -0.053213872 
-0.267504 -0.14240615 -0.0138504775 -0.57362866 0.3291479 0.7532982 -0.6843945 -0.013718196 
-0.04633981 -0.124770336 -0.08236557 -0.41866452 -0.9330321 -0.011165958 -0.020231117 -0.0050381306 
8
-0.06764654 -0.2925455 0.045781408 -0.06507763 0.019129172 0.018364962 0.40871844 0.07837997 
8 4
0.5516483 -0.43242177 0.09863015 0.41081363 
0.18570031 -0.18705423 -0.0122110285 0.72112375 
0.41587144 0.5170178 0.00080372696 0.729004 
-0.5692326 0.41243285 0.3327207 -0.32703203 
-0.08764984 -0.29618564 0.6487978 -0.4461563 
-0.25727227 -0.35874194 0.5241351 -0.52543855 
1.0245528 -0.16659762 0.06332136 0.1789639 
-0.02275814 -0.432949 0.54207003 -0.16980663 
4
0.39555225 -0.016376086 0.06879374 0.27731624 
8 8
-0.2886761 -0.99310404 -0.6730597 0.05147818 -0.060364984 0.11591056 0.16075695 -0.30639544 
-0.35931194 -0.09845163 0.1255375 -0.6792606 -0.2871515 0.6066124 0.26118106 0.0047846176 
-1.4510629 -0.14143452 0.4679731 -0.7872828 -0.41110218 0.60803777 0.36350366 0.4752478 
-0.7866686 -1.118604 0.14902866 -0.8042238 -0.46399716 0.13204333 0.5771594 -0.30827123 
0.10505359 -0.0038513022 -0.16014536 0.526422 -0.0019414449 -0.019235905 0.18279302 -0.3608319 
0.1473385 -0.5513775 0.08937655 -0.29116538 -0.037222207 0.2537552 -0.41653603 0.40147275 
0.30916196 0.27480292 0.107413895 0.08929817 -0.2691153 -0.5854402 -0.2781229 0.0021222983 
-0.28134724 0.11751543 -0.2137154 -0.15959427 -0.5038707 0.8179679 0.6016784 -0.028819129 
8
-0.3943325 -0.844385 -0.00890205 -0.38955602 -0.05532191 -0.22022413 0.13412985 0.15304771 
8 16
-0.08233912 0.00727985 0.1352785 0.22381362 -0.13565566 0.4234105 0.12101771 0.013523958 -0.060088914 -0.124618694 0.06691221 0.38142905 -0.75381005 -0.15734431 -0.07654296 0.44311985 
1.3954916 -0.7660475 1.2395154 -1.1882076 -0.07307575 1.3561453 -1.7432015 -0.532969 -0.3773176 -1.9157227 -0.65049237 1.0515555 0.95629066 -1.5726205 -1.3285466 0.9664973 
0.0543192 -0.44705647 0.38582686 -0.6732027 -0.8212278 -0.101248845 -0.33165315 0.07199393 -0.01689728 0.20350212 -0.022918232 -0.26630166 0.6213055 0.18019171 -0.03313115 0.0029539433 
0.2435572 -0.3628973 0.42426342 -0.31412888 -0.013282091 -0.4372037 0.36894447 0.17770876 0.19876711 0.17524628 -0.36059707 0.028001904 -0.9697275 0.015760727 0.0054978924 -0.23116943 
0.010751332 0.34154066 -0.08528739 0.010297914 0.43366262 -0.08813095 0.48940128 0.46409416 -0.38800633 -0.036103547 0.10496043 -0.11055559 -0.32010627 0.12985127 -0.35864118 0.37374038 
-0.34779334 -0.18118416 0.018837728 -0.8272489 0.25828093 0.6865601 -0.13771771 0.1394254 0.25002927 0.341531 0.110466905 -0.07844686 0.69653726 0.56742734 0.4319002 0.4261867 
0.1627626 -0.22016521 -0.036931895 -0.02129799 0.20899409 0.12559827 0.3724048 -0.053713787 0.36303475 -0.0035925545 -0.28401598 0.2193443 0.47551718 0.46804887 -0.2092548 0.17966105 
-0.10803649 0.08561321 -0.20794438 -0.69926 -0.1262327 0.11625772 0.04962469 -0.71180564 -0.16334768 -0.2567047 0.17889515 -0.0637014 0.37078738 0.11735211 0.25783184 -0.03254268 
16
-0.26359642 -0.0149438325 -0.14057192 0.0978231 -0.064079665 -0.8538909 -0.19836655 -0.043623075 -0.086215556 0.06760615 -0.11084307 -0.3325799 0.54237866 0.07601876 -0.062828876 -0.18716584 
16 4
-0.4840416 0.4422854 0.10092994 0.46999058 
0.13188484 0.3194839 -0.049985636 -0.1817682 
-0.44437996 0.29333162 -0.4150305 0.68018544 
-0.0568311 -0.35524467 -0.09096829 0.48369205 
-0.038072195 0.1188211 -0.21263912 0.4772864 
0.027005408 0.7881801 -0.049855284 0.41357863 
0.41286772 -0.93375033 -0.38462418 -0.74633527 
0.2949778 0.19773431 0.31740677 -0.3526853 
0.32710293 -0.5884121 0.34902582 -0.58505005 
-0.20999545 -0.5989231 0.20499215 -0.30530927 
0.47144955 -0.117586985 0.1441396 0.14777388 
-0.55991715 0.3447966 0.06777595 0.1791258 
-0.5231311 0.035830297 -0.43792224 -0.9379301 
-0.13604881 -0.60749906 0.07698954 -0.5189174 
0.44436678 0.02843453 -0.18729058 -0.5559108 
-0.19839431 0.035338596 -0.46791694 0.2741013 
4
-0.09063309 -0.55573463 0.011339643 -0.096358195 
4 4
1.1887344 0.4864911 0.8212929 1.1113054 
0.36863706 -0.6676844 -0.69744027 -0.7523023 
0.7541295 -0.46440578 -0.7068591 -0.3085279 
0.74299407 0.16138738 0.15665263 1.3321689 
4
0.05706597 0.27288282 0.38473737 0.3614908 
4 4
0.86103487 0.48665205 -0.056309044 0.38241696 
-1.1432109 0.62892115 -0.077418566 -0.68321574 
-0.060177814 1.3053284 -0.739084 -1.1897815 
-0.16787307 0.84342355 -0.84023046 0.036370926 
4
-0.17280443 0.51725525 0.0 -0.27580526 
4 1
1.1520649 
-0.85796535 
0.07553136 
0.23214452 
1
-0.4132884 
